0.12684257
-0.0987444
-0.046339255
0.10696327
-0.19501455
0.13643079
-0.04015551
0.11507035
0.035242777
-0.024245538
0.06451636
0.012936076
0.08323061
-0.085937455
-0.0143759465
-0.021215713
0.030682344
-0.00013742923
0.1959319
0.0717154
-0.07729674
-0.13079247
-0.035118874
-0.08973221
-0.064822435
0.012716001
0.13513745
0.12224294
-0.21337675
0.13909185
0.06480329
0.20826958
0.14842269
-0.19846764
-0.20603438
-0.10803503
0.19715759
-0.03371735
0.09250587
-0.10447687
0.25383013
-0.09483945
0.15589918
0.00053701765
-0.058664467
0.11344905
-0.10519785
0.062445156
-0.05454734
-0.018340334
-0.21792682
-0.10358398
0.11621496
-0.049669012
0.20646517
0.16607583
-0.03321541
-0.16017236
0.13384107
0.0976077
-0.106544085
0.14677384
0.13206547
0.21005082
-0.061234508
-0.032065134
0.013018546
0.03842815
-0.16347164
-0.15083972
0.12715022
-0.05015825
0.111208
0.020965632
0.074318774
0.046148583
0.07421189
0.1089262
-0.20883232
0.13624403
-0.16709873
-0.16899528
0.015076653
-0.04310452
0.09617913
-0.13233328
-0.20536308
0.16011609
-0.03891915
0.12120052
0.06742437
-0.16610642
0.040963624
0.04416524
-0.1573801
-0.10443028
0.07078733
0.035930607
-0.089872144
-0.062960215
0.1918422
-0.030863265
0.13325305
0.11007785
-0.13798511
-0.17534786
0.21276458
0.020731026
0.15209271
0.04674062
0.08445868
0.16139464
0.22491598
-0.13865815
0.06763657
0.1749202
0.18798152
0.15686567
-0.16093448
-0.18811172
-0.14718825
0.024057016
0.21935637
-0.15130712
0.08931179
-0.12874226
-0.2189362
-0.05309179
0.12401402
0.20187528
-0.1446414
0.04805989
0.18248586
0.14037348
0.12704985
0.15633254
0.13167952
0.048553333
-0.15338019
-0.18709849
-0.058805183
-0.026330568
-0.13656738
0.096293494
0.1646506
-0.03759738
0.1099668
0.08297772
0.14778124
0.15997666
-0.062584095
0.21641941
-0.011437505
0.003410852
-0.18448053
-0.14021952
-0.12168358
-0.08322898
0.16088587
-0.06521393
-0.18012051
0.08273912
0.071095
0.13575126
-0.14038357
0.040889636
-0.09140299
-0.056780867
-0.18210597
-0.10744412
-0.07673975
0.093431555
0.032164477
0.04899077
0.20846298
0.21488805
0.14374082
0.00036360507
-0.1544933
0.18030131
-0.07797755
-0.017188286
-0.18982603
-0.05051226
-0.1839885
0.20136888
-0.20167156
-0.17835411
-0.015406461
-0.12745124
0.07216421
-0.086223535
-0.108635075
0.00523674
0.15212142
-0.15513028
0.102154896
0.14089498
0.22007108
-0.15721893
0.07714371
-0.16050552
0.1920771
-0.078854054
0.19239718
0.014977653
-0.00064065214
-0.0041269977
0.046739087
0.11324307
0.045231692
0.0722373
-0.19386257
0.17547339
0.21320231
0.1871929
0.17281233
-0.1519284
-0.08480853
0.19990955
-0.19297208
0.19878379
-0.17667058
-0.17161508
0.047609676
-0.16841978
-0.06901906
0.15183747
0.16845515
0.20139708
-0.056307618
-0.17009155
0.20467088
-0.056825012
-0.116070114
0.05027206
-0.16935027
0.13430673
0.13627712
-0.17387426
-0.2046088
-0.020621167
0.09270001
-0.016570996
-0.15025072
-0.0008419066
-0.22010507
-0.16381629
-0.1546919
0.17695515
0.19127996
-0.07641345
-0.0019369352
0.091257304
0.011321712
-0.11278649
0.12452251
0.13100143
-0.01223904
-0.025175171
0.24355476
0.19076858
-0.124959804
0.23010218
0.11897599
-0.13778058
0.1447258
-0.15663691
0.2115015
-0.13576645
0.07141721
0.06897416
0.060635593
0.1942183
-0.07892352
-0.09264417
-0.19201104
-0.004770967
-0.1023191
0.020218698
-0.05846363
0.07322782
0.19338012
0.061098915
-0.09455867
-0.1093678
-0.19939113
0.18445799
-0.044581648
0.040570896
0.0055360743
-0.14177908
0.12342595
0.119947344
0.01043638
-0.12285152
-0.09273982
0.0021509805
-0.12755854
-0.12987864
-0.025222464
-0.062531136
0.05589979
-0.052331965
-0.012088849
-0.080510005
-0.19738421
0.19572079
0.044327207
0.20098601
-0.030408302
-0.056238957
-0.20170738
-0.07946165
0.15659484
-0.21481149
-0.07015067
0.14100927
0.12668714
0.07459997
-0.043064207
-0.0176645
-0.043656103
-0.08397669
0.08785341
-0.07651252
-0.12589172
0.049223695
-0.16069244
-0.047432743
0.11261193
0.08253582
0.18683343
-0.15076959
-0.002109713
-0.06739381
-0.12689036
-0.12693945
0.05588983
0.025289472
-0.07359895
-0.15902966
-0.19419251
0.22883058
0.044969898
-0.04867545
-0.06557181
-0.111836195
-0.19306119
-0.119761266
0.14317787
0.050716538
-0.07916392
-0.07506946
0.14219849
0.15310188
0.20883583
0.0646709
0.10750598
0.0014747441
-0.12254609
-0.2210611
0.13532731
-0.027618714
0.11320418
0.01310496
-0.20647933
-0.10907002
0.06757014
-0.042942196
-0.21615236
0.079141095
0.0080151735
-0.069746375
0.09241899
0.04515089
-0.08356938
0.20248613
0.11435533
0.031906668
-0.011389614
-0.1833344
0.17405078
-0.034585115
-0.077021345
0.15654078
0.09999361
0.06856571
-0.030141057
-0.059307728
0.054870885
0.17667277
0.048368763
-0.09321758
0.2513108
0.008163444
0.19368377
0.06926447
0.19673602
0.12114765
-0.06329422
0.15381977
0.0018582162
-0.16200858
0.067061946
-0.18674123
-0.087672286
-0.14124046
0.16565646
-0.025076443
-0.024748914
0.10276623
0.10066477
-0.13391832
0.106253125
0.095193945
-0.16409731
0.19666772
-0.13373794
-0.074653916
-0.08500734
0.19833504
0.034703482
0.20795883
0.21964416
0.14236294
-0.022046046
-0.15696928
0.05794463
0.011764441
0.002785891
-0.10456959
0.024038246
0.08886203
0.116115764
-0.17648536
0.11514154
0.03950698
0.15427545
0.1791014
-0.17384116
0.21366225
-0.22000512
0.12723926
0.01556558
0.10503152
-0.12073218
0.13435778
-0.11062358
-0.19658971
0.073413424
0.12257282
0.2201918
-0.023862703
0.21074785
0.142639
-0.11539028
-0.17400491
0.12603533
-0.11780529
0.122232504
-0.18801035
0.16592172
0.08218945
0.020927658
0.1116228
-0.14670673
-0.040724106
0.01184271
-0.12350306
-0.046420544
-0.095952906
0.22447899
0.19987336
0.21162602
0.18531764
-0.20413148
0.08453842
0.08319517
-0.16734107
0.13640854
-0.10966908
0.03223862
0.093256466
0.30498007
-0.100292586
-0.13401683
0.21309096
0.105550826
0.115314975
0.092429474
-0.07401992
0.15383044
-0.17100842
0.054641508
0.09769709
0.16109627
-0.086716264
-0.14510283
0.09236092
-0.19577563
-0.17790388
-0.19320162
-0.1123081
-0.091134556
-0.13494983
-0.10214739
-0.20090206
0.1310473
-0.058000684
-0.14400859
0.05872175
-0.16585739
0.14895292
0.1142907
-0.21333307
-0.1742288
-0.1436214
-0.11817913
0.022567041
-0.1940894
-0.17184518
0.10024271
-0.06927697
-0.03315096
-0.18717428
0.103864424
0.017558571
-0.078293905
-0.13097419
0.049139757
0.06492663
0.099939905
0.07055713
-0.0371263
-0.17856033
0.13741727
-0.008479141
-0.14810504
0.21726264
0.12190818
-0.17471622
-0.10722986
-0.0728179
-0.13468803
0.10447209
-0.15946175
0.2082919
-0.09204808
0.13178803
0.008032899
-0.09780575
0.14840463
-0.17152725
-0.11321001
0.031782854
0.1777304
-0.09622743
-0.1338717
-0.14364615
-0.09971054
-0.075534776
-0.048133496
-0.124633424
0.067987986
0.0017188026
-0.144524
-0.12516871
0.045796853
-0.002683087
0.15529151
-0.03332416
-0.17590877
-0.16281451
-0.062302604
-0.046529878
0.026491504
-0.046927664
0.07906967
-0.075276494
0.16998899
0.05358219
-0.06523342
0.2024554
0.07935026
-0.1453161
-0.11506141
0.14329974
0.103312396
0.17558986
-0.012710077
0.15609825
0.117709175
0.073252544
-0.03952693
0.21754803
0.051899347
-0.049661227
-0.002231497
0.21762417
0.18001965
-0.013615044
0.2165147
0.10289995
-0.0638152
-0.20502043
0.1444657
0.21351476
-0.12234092
0.100831784
0.01305914
-0.04553149
-0.05952377
0.06818918
0.04163298
0.14609571
0.07332119
0.10304854
0.19813807
0.086117305
0.06709767
-0.07903218
0.161397
0.037050527
0.21677028
0.22232193
-0.033529896
0.16008195
-0.037742853
0.21308112
0.18261321
-0.07769768
0.012220031
-0.08813015
-0.09107551
-0.050211534
-0.008427364
-0.0731923
-0.20897792
-0.1239192
-0.16372652
0.03382403
-0.010691764
0.0624387
-0.09015943
-0.1281335
0.116985336
-0.0844538
0.12358798
0.14290033
-0.124160744
-0.081985906
0.020484414
-0.16667978
0.05329759
-0.07350418
-0.07811472
-0.13805276
0.08298342
-0.1132526
-0.14147039
-0.047477737
-0.09977465
-0.17235063
0.06897638
-0.065611504
0.12644148
0.12419348
-0.11266423
-0.103101484
-0.063015364
0.10110348
-0.00799542
-0.06691981
0.11906428
0.12780768
0.15420434
-0.15673625
-0.05497005
0.04055557
0.11833589
-0.1260437
-0.06511163
0.02536022
-0.06938564
0.117408104
0.007921076
-0.09066695
0.14762434
0.085240744
0.05098084
-0.18461391
0.06424032
0.1413871
0.029563284
-0.078534566
0.0731605
-0.05257338
0.1698402
0.15581116
-0.012286176
-0.0789263
0.11319236
0.11933183
0.09027899
-0.13896634
0.067792356
-0.08066696
-0.14547193
-0.10733596
0.08432853
0.08992699
-0.16302212
0.08508038
0.16273832
0.1436602
0.08694944
-0.0032903736
0.11415021
0.13904375
0.095320985
-0.12262939
-0.06102604
0.13885584
0.12381696
0.13688664
-0.06972792
-0.027419975
-0.08434914
-0.11375231
0.12566198
-0.1482177
-0.044894956
0.058183797
-0.09282643
0.06970656
-0.027494512
0.0720649
-0.1344774
0.023986567
-0.1594646
0.11256388
0.17218633
-0.057967853
0.0252744
-0.09084814
-0.11103888
-0.08793985
-0.084659085
0.038899634
-0.020426016
0.013505228
-0.13498208
-0.11029431
-0.15223522
-0.12628916
0.14848776
0.067523904
-0.16819802
-0.029454155
0.01794121
0.098054476
0.1668865
0.04346413
0.12501532
-0.060637932
-0.0037788386
-0.105178125
0.027302433
0.12836221
0.12678114
0.16576655
-0.07152344
0.0309263
0.063193284
0.1822929
-0.18905625
-0.13057868
0.094011135
-0.08786905
0.028944664
0.048272584
-0.06223937
0.08702869
0.12683976
0.1782384
0.07656078
-0.002714332
0.11361705
0.20930693
-0.08302136
0.10367446
0.15597242
-0.13335098
-0.08746016
-0.07171392
-0.1357416
0.0060009374
0.10002779
0.20494485
0.012658843
-0.17165016
0.09285608
-0.053879358
0.15623604
-0.17083861
-0.04148647
0.13459162
0.076367304
-0.089094006
-0.15318546
-0.0043061012
0.067687094
-0.14693001
-0.14812386
-0.0034171965
-0.03662226
0.1122214
-0.17156368
-0.028320732
-0.13699898
-0.026935592
-0.09086607
0.055182878
-0.14834897
-0.13949332
-0.10067345
-0.15515861
0.110632256
-0.025603708
-0.09867998
0.122282304
-0.048089053
0.06583628
-0.043436017
-0.14277685
0.035726316
0.15330127
-0.15340085
0.026589256
0.026649678
-0.004389952
0.034460165
-0.052608933
-0.15428779
0.06042089
-0.12584834
-0.15409245
-0.061491296
-0.11107017
0.048355028
0.13404515
0.118142426
-0.069971696
0.10561061
0.1436035
0.081367746
0.024614291
0.065788716
0.1162764
0.08234861
0.10971581
-0.03870008
-0.055798993
-0.08188652
0.14254394
-0.036681157
0.024939837
-0.16638288
0.024021022
-0.034495365
-0.12625767
0.14407839
-0.13716254
-0.020856982
-0.012266186
-0.15625945
0.10601505
-0.051487077
0.074647404
0.09175815
0.17047158
0.037985098
0.14558089
0.16287516
0.04421109
-0.023825772
-0.03571947
0.040929765
0.04832588
-0.17183422
0.13488209
0.021807363
-0.16180511
0.07018653
0.12211214
0.06058432
0.1364989
-0.0107019935
-0.1502674
-0.01722076
0.11610812
-0.08993544
0.036174294
0.04146993
-0.028730534
-0.012239778
0.053553354
-0.120805986
0.084991604
0.11639948
0.088605635
0.16571088
-0.01841995
-0.13363363
0.0035789025
-0.052682944
0.040876824
0.1422812
-0.1005907
-0.025582805
0.15979788
-0.15122445
-0.033517852
0.16586605
0.10347605
0.036711685
-0.09215295
-0.012419131
-0.15691407
-0.15655531
-0.14919233
0.17142388
0.16297549
0.085607976
-0.042722918
0.1586792
-0.04004575
0.13022673
-2.0668214e-05
-0.07882916
-0.044585496
-0.03370638
-0.161051
0.05290707
-0.037155747
0.08417256
0.12922683
-0.023624422
0.102809176
0.046992917
0.12939222
-0.09628575
-0.019462489
-0.05640108
0.15679923
-0.15887193
-0.093174495
0.034261253
0.16653313
0.12147004
-0.16559316
-0.11118561
0.17341259
0.036895946
-0.13310052
-0.04758778
0.10284578
-0.04385896
-0.14088671
-0.08749512
-0.08095896
-0.014289906
0.09814813
0.081408866
-0.08331265
-0.024853326
-0.12498569
0.13928296
0.18536666
0.16285731
0.10542162
-0.029263241
0.0064161597
0.109515235
-0.16025405
0.0071507394
-0.14364594
-0.17626143
0.01695332
-0.03796398
-0.08772917
0.017171867
-0.009020615
0.038792633
-0.1195427
-0.14293428
0.025456307
-0.060094133
0.004673404
0.097161956
-0.01810198
0.14376242
-0.024780616
-0.17043693
0.09780218
-0.12690127
0.026323708
-0.12352393
0.12748133
-0.11271332
0.14035064
0.09925953
0.19203338
0.10090668
0.049978297
0.111578315
-0.027415067
-0.086406864
-0.1810323
0.159695
0.06591639
0.110843934
0.07195572
0.047192205
-0.12311255
-0.12729546
0.14787303
0.0552129
0.12554285
-0.15673053
-0.0011916987
-0.16217309
-0.028908234
0.012472074
-0.12585011
-0.18256235
0.011890553
0.15427381
0.14792998
-0.11380212
-0.014901447
-0.15064253
-0.12030015
-0.055771537
0.20088638
-0.032035604
0.02678917
0.21391547
-0.013323872
0.112589836
0.10577839
0.15428802
0.047821283
-0.121775806
-0.12544432
-0.09533064
0.13984932
0.09643587
0.043141782
-0.13687478
-0.13804364
0.13930173
-0.015325604
-0.18105832
-0.03374244
-0.038693193
-0.0016253493
0.06565063
0.07199121
-0.1375211
-0.0038992548
-0.08780513
0.11080952
0.08625226
0.08726597
0.15534395
0.08839309
-0.18014957
0.041157056
-0.1196164
0.021338759
-0.0057062567
0.16980049
-0.12148952
-0.17248651
-0.051608935
0.028449023
0.13315213
0.14643916
0.13554338
0.050148673
-0.05455717
-0.046610788
-0.10391715
0.03496553
-0.12395214
0.06452553
0.10546362
0.1483874
-0.1734905
0.14072196
-0.11106082
-0.012660743
0.16118255
0.08810669
-0.058274575
0.10159948
-0.17189157
0.12760329
0.16623342
-0.013100885
0.009234191
-0.03449951
-0.1090666
-0.07834604
-0.010685218
-0.14926198
-0.14647481
0.008164038
-0.109630875
-0.09440206
0.016794061
-0.0834566
0.16850722
-0.043448362
-0.09095647
-0.03262305
-0.14247179
0.08932627
0.16974019
-0.092370205
-0.066816606
0.18248954
-0.12650673
0.050042044
-0.1410726
-0.14741932
0.0030366203
-0.08930628
0.08984052
-0.03248324
0.008739496
-0.08252936
0.10509375
0.15007396
-0.025303315
-0.10922769
-0.17365938
0.18715797
0.09703505
0.09212936
0.09309163
0.29867464
0.15891865
0.085510135
0.11421921
-0.23172817
-0.04063791
0.0247973
-0.12957336
-0.23257807
0.1723432
0.10858923
-0.15743382
0.010771493
0.17170173
0.20031539
0.22830215
-0.09886222
0.11131418
-0.20279557
-0.030783277
-0.15899906
-0.04759172
0.14228112
0.12457926
-0.13150379
-0.06199505
-0.049967628
-0.09512137
-0.13694921
0.18349652
0.17278576
0.20870431
-0.13746734
0.18270561
-0.07581189
-0.058990076
-0.06731938
-0.012274203
-0.10949967
0.03372671
-0.16114075
0.10280635
-0.2097733
-0.0907611
-0.174618
0.16830318
0.17153595
-0.19900228
-0.11366139
0.21938767
0.06825864
0.24865368
-0.19124745
0.12134491
0.1802177
-0.055756353
0.0076265815
0.18433435
0.12629867
0.08661544
-0.002358127
-0.08540684
-0.13960837
0.24948087
-0.019777834
0.22183563
0.20454964
-0.13073549
0.016992627
-0.06395481
-0.004539735
0.1647292
0.13766211
-0.14199737
-0.12370812
-0.17760107
-0.21225959
0.1603409
-0.1544801
-0.004090726
0.04947877
0.063711494
-0.039182976
0.32572627
0.037167482
0.18338019
0.08651928
0.017480664
0.06502773
0.18386626
0.19366297
0.2171683
-0.041058484
0.065050595
0.2692946
-0.23602295
0.020960927
0.22415912
-0.12562321
-0.052474912
-0.015066764
0.07861312
0.09173949
0.05594533
0.09883503
-0.10731562
0.09921674
-0.07927921
0.15493429
-0.07533237
-0.21270227
0.012424974
0.17765954
0.015643485
-0.008417555
0.09893831
0.13612491
0.044231575
-0.21904898
-0.14486709
0.016486285
-0.008279946
0.29942995
-0.013632658
0.17908232
-0.1742863
-0.16693392
0.2129639
-0.06626533
-0.30939206
0.1359085
-0.19751458
0.539844
-0.29723004
0.048405282
-0.13290793
-0.22738405
-0.18439844
0.040988375
0.02391905
0.18007298
0.18056497
-0.1158744
-0.23024888
-0.074482635
0.33317634
-0.024461186
-0.2976432
0.26477814
0.085602716
0.021795928
0.13604063
0.24668328
-0.16098003
0.32499522
0.33997622
0.084602356
0.22304264
0.26048124
0.4176399
-0.08225044
-0.21029098
-0.08590158
-0.24053851
0.22754791
0.3407326
0.4207093
